{
  "version": 2,
  "base": {
    "w1": [
      [
        -2.303515269949739,
        1.8988952456048407,
        -2.556585266405608,
        2.3751097234825416,
        2.9729692935959355,
        0.34643689111614206,
        -0.12367367253047096,
        -1.0426600766066714,
        0.8811812958651631,
        -5.184806944108274,
        1.187419416874384,
        2.2733010648917467,
        0.09575309000587959,
        2.726544401893182,
        -1.0584237997844281,
        0.8039738825068662
      ],
      [
        0.5459906883856037,
        1.8830106844577126,
        1.745304175141876,
        -1.1620007058807016,
        -1.1731485263693,
        -4.741803759644427,
        -1.8203999950851701,
        0.27526952785620007,
        0.9855113948185265,
        -0.14695457994711592,
        2.441449837771628,
        1.5437330317466287,
        1.6078322747550655,
        1.8641353310572695,
        -3.03958655699635,
        1.1816901145476026
      ],
      [
        -4.25735062169978,
        -2.7652525685155878,
        1.9068039058202313,
        3.833481291622375,
        -1.8448295107436001,
        1.8753289794941699,
        -1.9112335207143758,
        3.023916508339422,
        1.936630442773569,
        1.2597673038728059,
        -3.234626909291795,
        -0.07483189286816817,
        -1.0275262489969161,
        -3.1527041500918123,
        0.767411888949248,
        1.6537862735411677
      ],
      [
        -0.0540658169433762,
        1.4631091239289638,
        -0.7851688686555568,
        0.5569842022619925,
        0.33976833678538226,
        -0.8329453686363518,
        -1.10610670336277,
        0.7196689660382665,
        -0.26176660194405954,
        2.463430594697907,
        1.7134116283597047,
        2.4323050056629985,
        -0.3546981303701015,
        3.6011154949492514,
        3.909142981484723,
        0.659158955337351
      ],
      [
        0.12934986852551794,
        -1.9054000318786817,
        -0.25398219473155254,
        -0.7701493016695403,
        0.562701853209079,
        -3.856861436353683,
        -2.0961972951219097,
        -1.612602261556854,
        -1.7044768945719164,
        -2.645428782819438,
        0.22678170585211208,
        -0.07325958349956117,
        -1.5663448440671361,
        -4.176784607736413,
        1.7739553769492042,
        -0.17030228705159137
      ],
      [
        -2.676355744409336,
        0.6055678387350066,
        2.856965335884675,
        -2.3175592942429666,
        -1.759988450991936,
        1.7476267654910709,
        1.946227953747901,
        0.20184750561766066,
        0.8452429001144661,
        1.7173019491656238,
        -1.0277276595569496,
        -0.20963366207571785,
        -1.8649626990738672,
        1.9613651077007206,
        -2.539915448091193,
        -2.161776090351306
      ],
      [
        3.841472022975011,
        0.5472695207154135,
        -0.6025278364128774,
        0.710578651578817,
        0.7154800897159179,
        0.9311308538012367,
        1.4960084833479053,
        1.8037255779447,
        0.5850483601495152,
        3.266386407823218,
        -0.33685939245372065,
        0.14421591695721014,
        -2.2523245130499627,
        -0.7557727856759027,
        2.814635211545738,
        -0.38260646443813157
      ],
      [
        0.9136814115789267,
        -1.1011090174452238,
        1.4078392633200731,
        -1.4785306638606486,
        0.9471842582737149,
        -1.4019964698938057,
        0.14280018765886035,
        0.1583844516042861,
        0.4188126600852255,
        -4.545617943809965,
        -0.8400567621816645,
        2.8073297310111642,
        0.1632937665486457,
        0.23611944305255894,
        -3.7737617979373375,
        -4.476468154586075
      ],
      [
        0.2699586127896447,
        1.1814030265849196,
        1.9905925515530238,
        0.6736426161412078,
        1.7444559373414636,
        -0.9084052177474088,
        3.8221549222663462,
        1.4589339835787474,
        -3.2345089437428816,
        1.0563622190968733,
        0.9769470848356147,
        1.048357481722983,
        -1.7660627965613949,
        0.760135288091671,
        0.08330388453293287,
        1.1084593817083361
      ],
      [
        0.9359048755292149,
        -0.9317521970188192,
        -2.8730913375265135,
        -1.0270667320359463,
        -1.8035973968124555,
        0.6179716680861778,
        -1.5957012513441458,
        -4.0548055275704975,
        -0.7695778979784743,
        -2.347235068450088,
        -0.17068228372443817,
        1.112899989357143,
        -0.17886546342597345,
        -3.1456079495977303,
        -3.175658432542133,
        0.3948276140142305
      ]
    ],
    "b1": [
      -0.1673311620530023,
      -1.038121251369462,
      2.045081905590048,
      1.5837155263421447,
      -1.4776516408308074,
      2.434013117599105,
      3.2487249927174298,
      -0.03386011705203868,
      -0.10065638174136603,
      -0.5433248717725037,
      -0.3617274869292299,
      -2.1951881135503517,
      -0.8426362026023366,
      1.5532043531606392,
      -1.0458338633395294,
      0.1534761353404324
    ],
    "w2": [
      [
        2.547078998085153,
        -2.7573566663617695
      ],
      [
        -0.5802430818378993,
        0.20871365561748248
      ],
      [
        -0.44813206035911163,
        -0.1279301545496209
      ],
      [
        -1.0296818107449628,
        -0.8340949092225212
      ],
      [
        -2.029935678535224,
        -1.8364168475365705
      ],
      [
        2.4980471577571177,
        3.511916366007182
      ],
      [
        -0.6458346434487917,
        1.5594107170534497
      ],
      [
        1.1742735405979443,
        0.5994876833384153
      ],
      [
        -0.34198982762687435,
        2.842888226973718
      ],
      [
        0.6847038741550551,
        0.3827363900582743
      ],
      [
        -0.17957158445890695,
        3.277699274876624
      ],
      [
        -0.07487275747372267,
        0.8920358552012392
      ],
      [
        -0.9977026524963117,
        -1.4313324106441743
      ],
      [
        -0.8515300874919816,
        -2.7610715101187164
      ],
      [
        2.5542015793902135,
        0.8217971902685005
      ],
      [
        -0.677962902215293,
        -0.09086684589523895
      ]
    ],
    "b2": [
      -1.1393242453823134,
      -1.2115125959904591
    ]
  },
  "adapters": {
    "1": {
      "A1": [
        [
          0.2584182690204821,
          -0.9022955497431858,
          -0.12313445108568458,
          -0.10040367834204594
        ],
        [
          -0.00989944309993402,
          -0.4556183299450664,
          0.18548355447297227,
          0.8750500409575028
        ],
        [
          -0.2015561501657203,
          0.4936628160371167,
          -0.004393425977392892,
          0.40973750321070534
        ],
        [
          1.1368494584677271,
          0.24876536401175184,
          0.007294189766760975,
          -0.21690489414562844
        ],
        [
          0.09198911348542631,
          0.3977017568011651,
          0.47438142883626006,
          0.10301580419162626
        ],
        [
          -0.5285867703795472,
          0.1675023267779881,
          0.25201564682743316,
          0.5709153129532574
        ],
        [
          -0.8382687471661927,
          0.3751210546650079,
          0.05120586766284081,
          0.4299162706393912
        ],
        [
          -0.1585841939420299,
          -0.29747411109847716,
          -0.4316076727166178,
          0.11403840383910345
        ],
        [
          0.6854028694778351,
          -0.9921115234486232,
          0.10152258365668838,
          0.19278353136060858
        ],
        [
          0.43939528785668575,
          0.04908356691483446,
          -0.10234944004939668,
          -0.6447116576941557
        ]
      ],
      "B1": [
        [
          -0.03105468699912863,
          -0.7392865281889238,
          0.5127601607117658,
          -0.029164330137183458,
          -0.07387520659109269,
          0.22779511499304486,
          0.0084550791284572,
          0.1782441126442729,
          0.21581614224397577,
          0.1421523022505272,
          -0.22301586512387,
          -0.026104636337922576,
          -0.3257431846482135,
          0.5587537865975236,
          -0.96336458677669,
          -0.9305428064306754
        ],
        [
          -0.41980723874616216,
          0.5603904042904748,
          0.291496646773062,
          -0.02391993329833025,
          0.6003414201463914,
          -0.18959946312194761,
          -0.09493536952910814,
          -0.34639591766762623,
          0.025533489906770547,
          -0.34524668686482435,
          0.59838238712921,
          0.2155260197546339,
          0.8798209268123379,
          0.5815501174477795,
          -0.23080966026817992,
          -0.5880364257586983
        ],
        [
          -0.9836372549067149,
          -0.1252427938467998,
          0.3902777466270596,
          -0.7675597796321613,
          0.8257634547359166,
          -0.28481276478642387,
          0.6319884449001865,
          -0.11295998019025917,
          0.6187391812990753,
          -0.47360999109014057,
          0.0242074351703261,
          -0.00230945207555105,
          -0.35490096871769833,
          0.41609399273312486,
          0.18069022286629496,
          -0.4099964916755876
        ],
        [
          -0.3185244568643208,
          -0.0349266615572221,
          -0.008177749273666471,
          0.8546115102946463,
          -0.15513727818081943,
          -0.7253498435572214,
          -0.3904121496900466,
          -0.2561784247592908,
          0.11732005435688081,
          0.38915058487951426,
          -0.5743005946234674,
          -0.17284925789165276,
          0.41053683922342993,
          0.44929606182949916,
          -0.7518408677331548,
          -0.26861345217520216
        ]
      ],
      "A2": [
        [
          -0.20169103938791624,
          0.4537765836491525,
          -0.319738662085416,
          0.44455092907538307
        ],
        [
          0.4348118084975816,
          -0.7854539430077366,
          -1.322594916344452,
          0.0740623512976122
        ],
        [
          0.3403625496009876,
          0.8842218480702682,
          -0.3083386858211434,
          0.18983968212196817
        ],
        [
          0.7492377435320512,
          -0.6309643185937921,
          0.827596621238262,
          0.5953201300400076
        ],
        [
          0.8334745496773639,
          -0.2669257506527536,
          0.5591362947226918,
          0.45285326963589184
        ],
        [
          0.5459488280587458,
          0.44124469715566594,
          -0.6249727560463285,
          1.131022034240606
        ],
        [
          0.13149693412469712,
          0.387514383005644,
          -0.3477991845336169,
          -0.18020108565039933
        ],
        [
          0.19313969687982951,
          -0.2959080280519471,
          0.19854168706906464,
          -0.4140250575343479
        ],
        [
          0.19402802504993377,
          -1.0432020177301575,
          0.01254328168924274,
          -0.3503461212834933
        ],
        [
          -0.32745951828856207,
          -0.5151629844795642,
          0.4828034703245763,
          -0.31694490234010103
        ],
        [
          0.009122782269938779,
          0.6898871581162981,
          0.20136039092824798,
          0.13414832775962107
        ],
        [
          0.1207067853900884,
          -0.2418392149374434,
          0.7086918993872587,
          -0.09224373544625979
        ],
        [
          0.22805779459767614,
          0.6783339164685337,
          0.47297195823206334,
          -0.13946618875111122
        ],
        [
          -0.08768804345033183,
          -0.03531008146056953,
          0.08515420691650157,
          0.06144930879361308
        ],
        [
          -0.13543020194988734,
          -0.11634254921935601,
          0.7928860834957162,
          0.3755822848464158
        ],
        [
          0.5424199571508515,
          -0.6890752747253407,
          -0.403460859880554,
          0.43346467786426246
        ]
      ],
      "B2": [
        [
          0.732538369501532,
          -0.5654633975338207
        ],
        [
          1.0808164101752593,
          0.13656943972885013
        ],
        [
          -0.47060907431655497,
          -0.16618318453260114
        ],
        [
          0.31033831731442146,
          -0.0903349258126079
        ]
      ]
    },
    "2": {
      "A1": [
        [
          -0.10885661988771689,
          0.3938159417697015,
          -0.385865117010974,
          -0.8418319332536579
        ],
        [
          -1.2945267879210824,
          0.16925101441657203,
          0.2814783946571263,
          -0.08347124837174093
        ],
        [
          -0.1496530644565086,
          0.09973734238996486,
          0.3310655087253952,
          0.14238956107786718
        ],
        [
          -0.5308668021120153,
          0.31305004794647046,
          0.14363882180898604,
          -0.10257529785746047
        ],
        [
          0.6591798775253058,
          0.05536721469985993,
          0.18429127073824658,
          -0.7537982991343896
        ],
        [
          -0.7821143230561963,
          0.007160123783117134,
          -0.37928746470267194,
          -0.3499905736784713
        ],
        [
          -0.30378276894030154,
          -0.5529797691744323,
          -0.261607890800888,
          0.2581699923030913
        ],
        [
          0.5087702067213863,
          0.54512491441205,
          -0.1803251265963487,
          -0.2368480348249074
        ],
        [
          -0.047997980946972954,
          0.39598967746997366,
          -0.7544725683019307,
          -0.10041037410358186
        ],
        [
          -0.4610185571737114,
          -0.6099310289997841,
          -0.09333603040861678,
          0.38097739538840114
        ]
      ],
      "B1": [
        [
          0.03492283551316942,
          0.7659318313466211,
          -0.8084446614203982,
          0.4055705248179937,
          0.012869331215088904,
          -0.34335678031777234,
          -0.25088847139825765,
          0.5086574002656892,
          -0.516320814183557,
          0.22186400730092615,
          0.5438639629590963,
          -0.42743782191795954,
          0.6826420874059608,
          0.03288952763935443,
          0.20354668730593847,
          -0.3407355386377471
        ],
        [
          1.168581214342655,
          -0.40699403079472085,
          0.9478579538806532,
          0.9911691641909337,
          0.0843179073855722,
          0.6162574780101836,
          0.06896870125082277,
          -0.7993511190136107,
          -0.3763268263828816,
          -0.11726713835908792,
          0.40487015503674806,
          -0.14894094938533356,
          -1.3158755149894272,
          -0.28113150570188317,
          -0.5148550789916695,
          -0.5804888636411979
        ],
        [
          -0.09559060348206194,
          -0.358791589245382,
          0.10086582361639149,
          -0.513986347381871,
          0.5504826145682251,
          -0.5433706958779444,
          0.12819212058299043,
          -0.9825150978127561,
          -0.6144807591705094,
          -0.06976147536730411,
          0.1677592285393048,
          -1.1950544405145636,
          -0.08208038084673971,
          -0.3024816179825725,
          -0.8007525849190019,
          0.403217600198674
        ],
        [
          0.3487837893336145,
          -0.3654725644212412,
          -0.626979470535875,
          -1.0080008954684458,
          0.15647156828214506,
          -0.8052239511153734,
          -0.7183469760557156,
          0.28490841950692963,
          -0.8170158216176748,
          0.4767772016774488,
          0.572884583186518,
          0.2044081305493031,
          -0.03734420584969332,
          -0.12560038142713123,
          0.39172120042317027,
          0.014681191572525348
        ]
      ],
      "A2": [
        [
          -0.32605691658698605,
          0.3732813953813146,
          0.24204987320903373,
          -0.6627920713532168
        ],
        [
          0.37386681565729,
          -0.18488136217492657,
          -0.46017221906086403,
          0.2577059739596719
        ],
        [
          0.1900687147223275,
          -0.7040608506891111,
          0.4243222849705366,
          -0.2845551679264304
        ],
        [
          0.1998212468887909,
          -0.7729043975599309,
          -0.564713625747624,
          0.3831189000448342
        ],
        [
          0.9616499306946062,
          -0.41760935121716114,
          0.19058494942888965,
          -0.2851352309946432
        ],
        [
          0.8222705167003861,
          0.2504046527803891,
          -0.05185258194091981,
          -0.5333149284807572
        ],
        [
          0.610332566500372,
          0.5735612678215787,
          0.23224321971348225,
          -0.06868909920851365
        ],
        [
          1.1249696291165137,
          -0.13339233484245963,
          -0.7947023727292781,
          0.4820944606430131
        ],
        [
          -0.36004903922102083,
          0.7592469466690412,
          -0.6621820421481094,
          -0.3116535682005832
        ],
        [
          0.18415050221851986,
          -1.416661447982957,
          -0.20168879169001733,
          0.12180328348872427
        ],
        [
          0.6374725332060011,
          -0.33738338417190145,
          0.023963040051852416,
          -1.2833707837219372
        ],
        [
          -0.14608956082727353,
          -0.5880188611740018,
          0.20781152768521846,
          -1.166772230939519
        ],
        [
          -0.08767332103417691,
          0.2706286841260354,
          -0.0636277642082232,
          0.6315333943290334
        ],
        [
          -0.013125594378881666,
          0.5357209625838729,
          0.2970647235657788,
          -0.2487857151627207
        ],
        [
          0.9239191762562344,
          -0.8775798578832076,
          1.5839729257825172,
          0.1199680722676859
        ],
        [
          0.5015668896932698,
          -1.0374137212494823,
          -0.2678871101228627,
          0.6086669519423484
        ]
      ],
      "B2": [
        [
          0.04865298170342605,
          0.28352422664785404
        ],
        [
          1.1739354069890942,
          1.1445440419653934
        ],
        [
          -0.14126449973789032,
          -0.3711203102343149
        ],
        [
          -0.3981457746204128,
          0.058652710528784735
        ]
      ]
    },
    "3": {
      "A1": [
        [
          -1.2894982001046293,
          0.09513021492181052,
          0.24144096254614103,
          -0.5677057167429693
        ],
        [
          0.243100889033919,
          -0.58600709805833,
          -0.5256195495424152,
          0.4209041601862744
        ],
        [
          0.6694566787311552,
          -0.19360493882833,
          1.4285962842101558,
          1.1782315341843372
        ],
        [
          -0.13825620115438736,
          0.6196483315815952,
          -0.27018344771392033,
          -0.5379454933045246
        ],
        [
          0.2926124333315147,
          -0.5135608636771127,
          0.16052937219063024,
          -0.05617003896932582
        ],
        [
          0.2857130058451544,
          -0.28649269803210303,
          -0.15903317032535014,
          -0.3115445801166765
        ],
        [
          -0.1726130684886209,
          -0.2506652335170534,
          -0.010559139117535773,
          0.180588195778287
        ],
        [
          0.6255952302736058,
          -0.1456745070537203,
          0.18706624989637782,
          0.6213295941113618
        ],
        [
          -0.8446172213574604,
          0.15983185944785736,
          -0.030885609893470597,
          -0.42429729659033466
        ],
        [
          0.18801953271946067,
          -0.6194198354514641,
          -0.16595196424096242,
          -0.270329580587526
        ]
      ],
      "B1": [
        [
          -0.22567252226775258,
          0.22466766818706288,
          0.5694197673274519,
          0.18369888289231717,
          -0.15283477501837126,
          -0.6254258143089608,
          0.003555417518367112,
          0.3760624077069685,
          0.41461665118967905,
          0.07475138317743507,
          0.5738810403826355,
          0.6782388054042722,
          0.563369995775239,
          0.9489557262993563,
          -0.7201146628567167,
          -0.48389748983817304
        ],
        [
          -0.3467425960228573,
          -0.013733399847019757,
          -0.14602442308899594,
          0.40390984726073814,
          0.12444539563534598,
          0.6939069384416182,
          0.29553233788211436,
          -1.1523694283869872,
          0.5089490260149896,
          0.7290904302668533,
          0.45316222881954377,
          0.3358609808214033,
          -0.6679243524093329,
          -0.06856070946188482,
          -0.31408114320095926,
          -0.20785064445467918
        ],
        [
          0.6957584001193352,
          -0.2877095566389295,
          -0.6566483902354913,
          0.5301179687010278,
          0.3295121358500518,
          -0.5635928448129055,
          0.5165036827999453,
          0.9911428932154828,
          0.06550813859780244,
          -0.8861870697770612,
          -0.4084851117383989,
          -1.5715112100093798,
          0.12371638559164713,
          0.19768383639775122,
          0.38177127619575285,
          -0.4154150489974462
        ],
        [
          -0.45130495829351763,
          -0.2670297428222155,
          -0.027357274502933897,
          0.8436237412291487,
          -0.48080631491671333,
          0.35865962061562634,
          -1.1936350742365267,
          -0.9130592872945918,
          -0.2232990030596416,
          0.23057611851394585,
          -0.18371052003092314,
          0.47197181104183594,
          -0.29125366134423175,
          0.36969380714923633,
          -0.08747005117284197,
          -0.512134742040562
        ]
      ],
      "A2": [
        [
          0.0040819743305581906,
          -0.01429708981140903,
          0.19166560099333957,
          0.9391583310512464
        ],
        [
          0.1936141792017256,
          0.42522932168301203,
          0.8828793594055059,
          0.28319361489865963
        ],
        [
          0.3663833038276021,
          0.2404950196484044,
          0.6842663658450034,
          0.9684797174193583
        ],
        [
          0.40839443259946456,
          -0.3354026348732301,
          0.4014809745923954,
          -0.4190592324193775
        ],
        [
          -0.44180704921619346,
          -0.19590741564434744,
          -0.04136096127522937,
          0.07839125429465169
        ],
        [
          0.39507137827432415,
          0.6996113308396888,
          -0.8044411329735618,
          0.7142660735996049
        ],
        [
          -1.3701423979109697,
          0.3722299411855164,
          0.43927857502895695,
          0.5343130553810929
        ],
        [
          0.6430335182794912,
          0.14196522342452494,
          0.3367832053776688,
          -1.064648285854756
        ],
        [
          0.43072935487363967,
          1.1148774368728933,
          -0.40907884067102174,
          0.3871459034014848
        ],
        [
          0.15601238981953533,
          0.522065066377655,
          0.3960789933556332,
          0.30768042965150905
        ],
        [
          0.19766967530901158,
          -0.2028333578644779,
          -0.2857015700787291,
          -0.06403098797156913
        ],
        [
          0.39593776272564335,
          -0.3243279440450527,
          0.27546603788296264,
          -0.5522213297537553
        ],
        [
          -0.38346457108105664,
          0.6806829705042439,
          0.4984137896940287,
          0.1773013042076263
        ],
        [
          -0.5455497256847257,
          0.5269588746844689,
          0.16567458295604465,
          -1.034151142917348
        ],
        [
          0.26925431276765494,
          -0.47140471142649465,
          0.4167708382172283,
          -0.43116528100679163
        ],
        [
          0.16037528800110734,
          0.2963745663004192,
          -0.1906062343460303,
          -1.105857947500421
        ]
      ],
      "B2": [
        [
          0.2957179938774647,
          -1.0337670143937954
        ],
        [
          0.3544928561529693,
          -1.3884954040977238
        ],
        [
          0.641716130684877,
          -0.2771104173981472
        ],
        [
          0.5855747084863732,
          0.17419165525340694
        ]
      ]
    },
    "4": {
      "A1": [
        [
          -1.6215531406014947,
          0.2930484692996248,
          0.29182190942423186,
          -0.3055901942302345
        ],
        [
          0.4133915683862896,
          0.48696442011021773,
          -0.3072781217320986,
          -0.37480389650723994
        ],
        [
          0.36209688088153646,
          -0.6387362176551893,
          0.22388878214697158,
          0.20797491856989092
        ],
        [
          0.37498625515801043,
          0.05400044295202205,
          0.7432628611725738,
          0.9609858818384713
        ],
        [
          -0.20820293290184846,
          -0.6690786791117815,
          0.3166968769554098,
          0.5248338715609542
        ],
        [
          -0.4303940344595872,
          -0.3679715229170068,
          -0.16471029179153918,
          -0.5675658024261545
        ],
        [
          0.24927089954472476,
          0.3008829697241635,
          -0.14353306513548875,
          -1.5668495757062475
        ],
        [
          0.7968768390083054,
          0.547690087179462,
          0.057582955518494953,
          -0.7720364507390806
        ],
        [
          0.32335620564916695,
          -0.3817242011644176,
          0.15931191666286865,
          -0.6481119184822368
        ],
        [
          0.6162740014710123,
          0.29387041938413455,
          -0.25458376500546864,
          0.9945290541313587
        ]
      ],
      "B1": [
        [
          -0.5813899093875335,
          0.9636239036606038,
          0.07393897673489788,
          0.23461052891017903,
          1.3518165545911227,
          0.19425938504205822,
          -0.41303494554266723,
          0.18286034221313766,
          0.38239461096013483,
          0.2713108221227986,
          0.0960680152013321,
          -1.4601587042798854,
          0.024113348843245695,
          0.02749727148010412,
          1.095161052989684,
          -0.4320463994119521
        ],
        [
          0.3298620140259359,
          -0.12977351221149647,
          0.6462752703202149,
          -0.3171610897972708,
          0.017266857995641163,
          1.3843622086464795,
          0.6797979910293971,
          -0.39380214365137656,
          -1.4192882787834529,
          -0.15880950514928807,
          -0.6056999594045809,
          0.9633753949824289,
          -0.2883585535342551,
          -0.22776017446048238,
          0.49017584958153676,
          0.019565679980339742
        ],
        [
          0.14611912463322635,
          1.1722014271003238,
          1.2016700907591091,
          -0.4027281624118958,
          0.8131396583079036,
          -0.14901877633624708,
          1.2047299292665734,
          -0.22706992822989278,
          0.9466160238341101,
          -1.0841694759615248,
          0.2934817812708195,
          -0.17983722495236432,
          -1.397024540867592,
          -0.04448891889000882,
          -0.46486555243453004,
          -0.9465919899202407
        ],
        [
          -0.7378845725509553,
          0.10484761564981522,
          -0.4533696958547676,
          0.9482111761727555,
          -0.624585793940897,
          0.15964762249440692,
          0.5503226077422654,
          -0.16696120785868554,
          -0.7478746548509896,
          1.21951821874169,
          0.39544001195864675,
          -1.3440056897614026,
          0.08397305503162925,
          -0.42804280551976526,
          -0.12200920191790134,
          0.06194719039666602
        ]
      ],
      "A2": [
        [
          1.9356088054387843,
          0.8211906546126271,
          0.3232238277300179,
          0.9045707695011054
        ],
        [
          0.37837901959553877,
          -0.10693881377737635,
          -0.3377950929823335,
          -0.09227345401354353
        ],
        [
          0.9111906293802116,
          0.05427886710127563,
          -0.8293648175865403,
          -0.10648279228379325
        ],
        [
          -0.525876637921446,
          -0.531842409086176,
          0.27220884747338125,
          0.2069052659257412
        ],
        [
          1.2940364453205206,
          -0.5064193295063362,
          1.0556969742381226,
          0.469580871430658
        ],
        [
          0.640504101395839,
          -0.3775672163584408,
          -0.037006834442960455,
          -0.18766949660378768
        ],
        [
          -0.03564382322315995,
          -0.5411541518129211,
          0.17599206701265083,
          -0.026285233252944122
        ],
        [
          -0.08665410352352863,
          -0.8082923452088521,
          -0.6849027946439254,
          -1.1198484914020304
        ],
        [
          0.40215764703021156,
          -0.04474183697739903,
          -0.5707273275792084,
          0.6400257526633512
        ],
        [
          0.49466692310045024,
          0.002266316017816357,
          1.3083880034746422,
          0.06013001926466935
        ],
        [
          0.3484879444886193,
          0.47050278870383405,
          0.9538179481355118,
          -0.6824251925281664
        ],
        [
          -0.02856814707056548,
          0.0844099679103358,
          0.36943626923389644,
          -0.6478124108100729
        ],
        [
          -0.7288804353815881,
          -0.5919388743889471,
          -0.6515642902060151,
          -1.1217939536292443
        ],
        [
          -0.11006861679887385,
          0.7616324700980192,
          -0.6023826762032838,
          0.6380102743442349
        ],
        [
          -0.07220312405573773,
          0.24267768184610464,
          0.5309380014550933,
          -0.13521712496116076
        ],
        [
          -0.13661900058542017,
          -0.16450155738482447,
          0.019880534816635806,
          0.16908679906371216
        ]
      ],
      "B2": [
        [
          0.025582487072425122,
          -0.8678336915389946
        ],
        [
          0.1478434298111289,
          -0.6935387936849962
        ],
        [
          -0.8688968806754861,
          -1.3346206541969805
        ],
        [
          0.6867092826707383,
          0.12655251548636998
        ]
      ]
    },
    "5": {
      "A1": [
        [
          -0.22035000787079267,
          -0.2542920689001331,
          -0.743102924532995,
          0.35513406443380385
        ],
        [
          -0.0316248091075614,
          -0.07155051542663829,
          0.8741264138069006,
          -0.504833564671441
        ],
        [
          -1.2236571488080894,
          0.114405376358393,
          -0.37131759942341336,
          -0.6198811454987626
        ],
        [
          0.3015089886185562,
          1.6249377944832368,
          0.5552733648152804,
          0.3101625092461526
        ],
        [
          0.30033977383093124,
          0.07919905098543922,
          -0.6877819366120658,
          0.43617840331940605
        ],
        [
          -0.059330728862484076,
          -0.026761190691825587,
          0.04305965444336043,
          0.13194186684463655
        ],
        [
          1.0319363608983771,
          -0.9426317787454421,
          0.0338719043498982,
          -1.2127589045402036
        ],
        [
          -0.4871756286490887,
          -0.8638689701670073,
          0.14990513707150313,
          0.5315663742936301
        ],
        [
          0.6396031926294046,
          0.1979387514009619,
          0.05471421416213797,
          0.34754240137619896
        ],
        [
          0.39049125835404275,
          -0.21445631126493142,
          0.6640016421840563,
          -0.262663199793647
        ]
      ],
      "B1": [
        [
          0.06694405426509464,
          -0.7533749260644786,
          0.08986815211598953,
          0.17563613331389338,
          0.3653813725110203,
          -0.11030160275533456,
          -0.9046444961613834,
          -0.7461877836387997,
          -0.5465835154191341,
          -0.3331554084716155,
          -0.030465024482699304,
          0.07525570028731968,
          -0.34473759643398644,
          0.04452389729227809,
          -0.022740851497751777,
          0.8353421366021915
        ],
        [
          -1.0482194595856391,
          -0.3571432957510789,
          0.2046231159277681,
          -0.11729637108323436,
          0.35921240166956614,
          0.23115904635771972,
          1.0608957253413085,
          0.5102495212934818,
          -0.30896910759523183,
          0.49759994108370587,
          -0.14597155479069318,
          0.19432212182580838,
          0.34047428167878363,
          0.36006130516083057,
          -0.06949757967059467,
          0.48184054861283754
        ],
        [
          0.36724967894149363,
          -0.3860458859063345,
          0.7946017977629675,
          0.3122445842696854,
          0.09104285313867,
          -0.12235213186209468,
          -0.39279447256629363,
          -0.5413918420174604,
          -0.19090067560208307,
          0.2199076921198367,
          -0.9181255205876264,
          0.30547248752941125,
          0.2143436734715543,
          0.6943206256352861,
          0.3191320078419926,
          0.6770351622161949
        ],
        [
          0.4187614086965427,
          0.8523827195561062,
          0.23981796665908578,
          0.15861105100861042,
          -1.0797375513347498,
          1.0273137786670827,
          0.5509008073011031,
          -0.8470613098536933,
          0.7882654340873517,
          0.6119953532565523,
          0.3930027308730824,
          -0.4501796089351763,
          -1.7224945224488417,
          0.18811577411690455,
          0.25178827585166597,
          0.2578364401755219
        ]
      ],
      "A2": [
        [
          -0.02088497246752959,
          1.3617017517343182,
          0.3870473213400781,
          0.38877113518358886
        ],
        [
          -0.5668130007990304,
          -0.14427069825467684,
          0.31012086709118625,
          0.8215316455700205
        ],
        [
          0.28259579864963136,
          0.43504071965554003,
          0.23136836767470964,
          -0.5153906063592361
        ],
        [
          -0.733164313441353,
          -0.6855238582102062,
          -0.4542091857100933,
          -0.2701868864716653
        ],
        [
          0.04603186821960124,
          -0.4078874127917923,
          0.47118213992926977,
          -0.013946928503755769
        ],
        [
          -0.4559163636193604,
          0.031116005537246492,
          -0.23226903465032928,
          -0.6694781130104207
        ],
        [
          0.4501066190958556,
          0.23133458522194117,
          0.7807309178827664,
          0.531708639960513
        ],
        [
          -0.19413235631725656,
          -0.40919421559176866,
          -0.8999119181091613,
          -0.16084191365214356
        ],
        [
          0.6527101135443418,
          0.009916417903399328,
          0.7529393258996786,
          -0.4219872517917911
        ],
        [
          0.29102987121166174,
          -1.054543164418674,
          -0.181712449865871,
          -0.9159795590695747
        ],
        [
          0.1767093365225453,
          -0.20465266004788943,
          -0.36701529331274135,
          0.3016411477941932
        ],
        [
          -1.0268818914182312,
          0.6640983401335208,
          0.8795539345809478,
          0.5924379687865923
        ],
        [
          -0.5591075057591469,
          0.7986973846092158,
          -0.16581032026755788,
          -0.1842290250050399
        ],
        [
          -0.24040318842821096,
          -0.3183764953954561,
          0.26934138928373985,
          -0.045819064417812055
        ],
        [
          -0.4638157254371994,
          -1.727227259199518,
          -0.22897152106653074,
          0.03820287886897944
        ],
        [
          -0.8279285349695081,
          -0.4423731359992523,
          0.682072258570532,
          0.5300976765358992
        ]
      ],
      "B2": [
        [
          0.6737326441171017,
          -0.06127038715944126
        ],
        [
          0.04160880903323824,
          0.4912890343392319
        ],
        [
          -0.12474641896662421,
          0.2127774676826854
        ],
        [
          -0.5576680246960297,
          -0.5250314183452128
        ]
      ]
    },
    "6": {
      "A1": [
        [
          -1.6604124267377198,
          -0.21307912593190603,
          -0.3970456040434457,
          0.9365018908886013
        ],
        [
          0.4954709431431532,
          -0.23931793628154718,
          -0.41866579252356245,
          0.4116940962897594
        ],
        [
          0.12071355644828098,
          -0.3016570438540516,
          0.24160073519653308,
          0.9648930610554493
        ],
        [
          0.2565418563922097,
          0.165557913447358,
          -0.03594011377119196,
          -0.21545510535722606
        ],
        [
          0.07662319483152638,
          0.03122477249844032,
          0.11849581337610253,
          0.09602276343225749
        ],
        [
          1.158719238331305,
          0.2831596654808461,
          -0.7372334712544081,
          0.6496606470078486
        ],
        [
          0.13074660040745725,
          -0.8030671686629709,
          0.34133840807046734,
          0.04466513990038656
        ],
        [
          -0.31572465438441905,
          -0.5197872963290178,
          -0.5242815445759108,
          0.3016638480186933
        ],
        [
          -0.37463179935715435,
          0.19302485652334728,
          -0.15725438501200345,
          -0.3423931972128299
        ],
        [
          0.3360820631325779,
          0.3216836610971858,
          0.555175578559257,
          1.105832646759927
        ]
      ],
      "B1": [
        [
          -0.06892201400057944,
          0.24491091088792358,
          0.36239953237824624,
          0.3354346541881279,
          -0.2709267692512439,
          -0.10645038544286903,
          -0.2774737309905884,
          0.016385095633259815,
          -0.30474954775537105,
          -0.0862189369090595,
          0.6721653468464861,
          -0.20182203284023145,
          -0.022650738893183538,
          0.13997291752063956,
          0.2729880514450966,
          -0.451627629670152
        ],
        [
          0.16151378029210545,
          0.935456599881811,
          0.1662625533063826,
          -0.03936824366667256,
          0.3902261429065575,
          0.5751012251252976,
          -1.0271768071518075,
          -0.12561778431605608,
          0.5572372491172246,
          0.06486318818091868,
          -0.2290187909845245,
          0.8377097548723339,
          -0.05131879964436305,
          0.27167448614950823,
          0.10777015228991747,
          -1.6572253368367575
        ],
        [
          -0.5792734561266032,
          -0.26055749513551735,
          0.6285390576794752,
          0.2821427019257901,
          -0.2520589930687024,
          0.5581713170764068,
          0.30730637443768466,
          0.011104238097594806,
          0.2669335381125736,
          0.6864130079115524,
          -0.05429419433692138,
          -0.5038483533744567,
          -0.6662870607967355,
          -0.2598004423038135,
          -0.1392238590010424,
          0.10711623590805174
        ],
        [
          0.32449411808036194,
          0.22339906248443483,
          -0.3600681329172815,
          -0.6210428158453536,
          -0.4672044952563799,
          0.39177345073162445,
          0.6301117701831527,
          -0.13310386240832076,
          -0.7407782930220799,
          0.2793997398620473,
          0.9229999492293923,
          -0.008099921477963488,
          0.15277515848305892,
          0.25662505324732665,
          0.3178544401088748,
          0.11398481185196861
        ]
      ],
      "A2": [
        [
          -0.3656934691800507,
          -0.5718440561117585,
          0.3686886826089668,
          0.5305520576162974
        ],
        [
          -0.5985298702237491,
          0.007530307887502571,
          0.16871506785703014,
          0.21903895542501922
        ],
        [
          0.397984384351222,
          0.29006632355407225,
          -0.01976340963675714,
          1.272900367643883
        ],
        [
          1.257594250060198,
          -0.8329061806814868,
          -0.2993027681586045,
          1.1659691700472319
        ],
        [
          0.434229689012874,
          0.22695322407056154,
          -0.6887620747557716,
          -0.25171396778651384
        ],
        [
          0.40506254081646165,
          -0.9314241123610235,
          -0.13059335664950783,
          0.0249110967440915
        ],
        [
          0.1886998449164367,
          -0.31219452645214424,
          0.7706200366103416,
          -0.3295032182275443
        ],
        [
          -0.08506367310624408,
          0.32693277045103153,
          -0.9401821526606128,
          -0.6658848202524796
        ],
        [
          -0.0012104280516866198,
          -0.4496052781860839,
          0.2078410966836524,
          -1.0019644924141857
        ],
        [
          -0.6020649382952548,
          -1.0246325397204323,
          0.38998974326649544,
          0.3641497570197977
        ],
        [
          -0.6213684353471872,
          0.5414132991532676,
          0.037274927768650906,
          -0.1641298730195016
        ],
        [
          0.19953036081091524,
          -0.05973129603282159,
          0.6891771089983464,
          -0.19022687933860336
        ],
        [
          0.6860980513810633,
          0.13707451208115093,
          0.1259449756724786,
          0.7339163212012231
        ],
        [
          -0.032532964775270214,
          0.41785748868689687,
          -0.2511124043647611,
          -0.1351536894908478
        ],
        [
          -0.27174372814515496,
          -1.1302316256028733,
          0.22965642530120903,
          -0.8277131738644986
        ],
        [
          1.1565762634614507,
          -0.1871372400866157,
          -0.2878555365266192,
          0.0315514018987747
        ]
      ],
      "B2": [
        [
          0.13436620091769938,
          0.13887874424504118
        ],
        [
          0.7175477144611956,
          0.15013856424758584
        ],
        [
          1.0542278464863504,
          0.3849410528831589
        ],
        [
          -0.4642607065821869,
          0.961590874743306
        ]
      ]
    },
    "7": {
      "A1": [
        [
          1.0866364635737535,
          0.19696177269511894,
          -1.205512860880784,
          1.3444290205546645
        ],
        [
          0.44678681489400135,
          0.5092961113265113,
          1.432618130636571,
          -0.43291959926008755
        ],
        [
          0.43093311302712517,
          0.0020567137661822773,
          -1.1914030607626693,
          -0.5900449477709886
        ],
        [
          0.38745681650611447,
          0.19067493646757674,
          0.25035715040135254,
          1.854402552481915
        ],
        [
          0.10392446593384902,
          0.22439018434122734,
          -0.7228823818671428,
          0.04264586970730923
        ],
        [
          0.5208968322965426,
          0.16492016231963832,
          -0.49705318284898903,
          -0.02615034546009895
        ],
        [
          -0.253921643154314,
          -0.7498828225529472,
          -0.17648757392632491,
          0.06947671323086385
        ],
        [
          0.2599111879184227,
          -0.11897958572502715,
          -0.35569266137688865,
          2.948837036759958
        ],
        [
          0.17607448376272383,
          -0.33076169489832186,
          0.5915297716515223,
          -1.0182832555464867
        ],
        [
          0.5142375683747142,
          -0.1528839276277436,
          -0.40629141833306953,
          -0.07450645962945801
        ]
      ],
      "B1": [
        [
          1.0594016331081817,
          0.2928500893759304,
          -0.3682865897481761,
          -0.6620396202470171,
          0.9603690687894566,
          0.6515103805856816,
          -0.3791140863810327,
          0.11728929291316097,
          0.7108148044503031,
          0.10211792557734135,
          -0.28666822387487273,
          -0.3577815893913872,
          0.24588884415400988,
          0.6697801970903455,
          -0.15306788313093117,
          -0.5919188870211447
        ],
        [
          0.5590578336318697,
          1.3784906264526713,
          0.30910414792494756,
          -0.3980472761706613,
          -0.27605993003453566,
          -0.06082525364668141,
          -0.22639990447076416,
          0.7787632472373586,
          -0.8459988193147234,
          -0.2940284557155138,
          -0.47972024929192003,
          -0.4824056101705002,
          1.3266803318769336,
          0.34419213156295597,
          -0.4269876548754716,
          -0.8270289796150837
        ],
        [
          0.2556652588308196,
          1.4042293041304883,
          0.7822022486273617,
          -0.3423772806945536,
          -0.4974115570116968,
          -1.2091117939839817,
          -1.390674051400976,
          -1.4430781414107359,
          -0.8359192277436548,
          1.6603590230307783,
          0.278399207180194,
          -1.1106573429717965,
          0.1225136230053707,
          1.2215564621925703,
          -0.15524338079751424,
          -0.35866040831841717
        ],
        [
          -1.579311066123469,
          0.1663360567743939,
          0.7404870338890357,
          1.5819887746511079,
          -0.24418765675808118,
          -0.3903270350878874,
          0.018274806886317444,
          0.4572203639481036,
          -0.015421246018892793,
          0.21309397942272276,
          1.4365162078057643,
          -1.5587090456335884,
          0.47926829926835557,
          0.05053354409633585,
          -0.29056975404361346,
          -1.4297401106154874
        ]
      ],
      "A2": [
        [
          -0.23509030870466055,
          -1.0696272922362395,
          -1.2476350963082448,
          -1.4323989261162775
        ],
        [
          1.178344906209749,
          -0.8405147070784986,
          0.3862405847581009,
          0.42379040530481654
        ],
        [
          -0.7809539775850625,
          0.4382711513617179,
          -0.11584719767611909,
          0.46245123967860835
        ],
        [
          -0.7465139041680928,
          0.6153703352292913,
          -0.382301245061334,
          0.5925291176112185
        ],
        [
          -0.644602989508952,
          -0.1740378313450744,
          0.032311573848240994,
          1.3910687985853432
        ],
        [
          0.09427254856258853,
          1.1755401573505306,
          -0.24223003359417944,
          -1.6885545607407062
        ],
        [
          0.8038341161654446,
          0.03812986049114117,
          -0.48255088310941613,
          -0.9405128432143534
        ],
        [
          -0.3475188969111002,
          1.0069523208115023,
          -1.0063108266208696,
          -1.5604784569831973
        ],
        [
          -1.1390258741298254,
          -0.21601053461850134,
          -1.1961772971996825,
          0.35013177536255113
        ],
        [
          -0.7869821099652607,
          0.41634842401074396,
          0.3414984808653785,
          1.1433492828013525
        ],
        [
          -0.3867458544482975,
          -0.8406385457570359,
          0.47800380223753713,
          0.3706429684536973
        ],
        [
          -0.05022865308080127,
          1.531434519934663,
          -0.37070593143468683,
          -0.4952038300261855
        ],
        [
          -0.9281890896035192,
          0.4509602593597932,
          2.067240159331306,
          0.7174509479836974
        ],
        [
          -0.6289705924694996,
          -0.2086190673057832,
          -1.0300697100511003,
          -0.49038866806793524
        ],
        [
          1.8484805067720758,
          0.7460331837393193,
          -0.48422788206053446,
          0.7682967260058114
        ],
        [
          0.001237862390034602,
          -0.0001484843292393432,
          -0.3143602912226176,
          -0.6294332062293221
        ]
      ],
      "B2": [
        [
          -0.5610364491632305,
          0.5435725385920191
        ],
        [
          0.7263974897399567,
          0.33719721839731986
        ],
        [
          -1.7660649493582177,
          -0.0773190617709079
        ],
        [
          0.013569057073618508,
          -0.318933860905787
        ]
      ]
    },
    "8": {
      "A1": [
        [
          0.39363756912811665,
          0.19762029209996979,
          0.04644021168477856,
          0.42248106461036905
        ],
        [
          0.6858858307794711,
          -0.3230558994738992,
          -0.9524927975359607,
          -0.014895595242331236
        ],
        [
          -0.5104039006065609,
          -0.019068507536706997,
          0.39814142438875577,
          -0.21070541519653946
        ],
        [
          0.4870729715125359,
          0.4610904735977128,
          -0.31040554393152625,
          -0.08063939349530486
        ],
        [
          -1.1787123426895028,
          0.2304428289198656,
          0.4903675160860385,
          0.5395302726286341
        ],
        [
          0.457174433136231,
          0.41864352802015425,
          0.9643002010854288,
          -0.7534643499203673
        ],
        [
          0.6042249428752801,
          0.11210296103146322,
          0.1763365534811318,
          -0.1237092462749736
        ],
        [
          0.14382425047181227,
          0.9297943856432304,
          0.07506078557647193,
          1.1292793941126953
        ],
        [
          1.0234393221218923,
          0.2093789950074817,
          0.758753897757943,
          0.7026162275065012
        ],
        [
          -0.08191397395684127,
          0.3390832840423393,
          0.6367073104540474,
          0.09568771024592604
        ]
      ],
      "B1": [
        [
          -0.019575241025153307,
          -0.025917696582283767,
          -0.36892194361899433,
          -0.06793606339377639,
          0.24526930433842853,
          0.2354017784922565,
          0.5121981832680923,
          -0.03690316275933922,
          -0.08810096872024552,
          -0.6913077818330183,
          0.916299099441409,
          0.47524446490369926,
          -0.5136738160243459,
          -0.10485081099457574,
          -0.6159734172584573,
          0.9716845934647046
        ],
        [
          -0.46664565147831405,
          -0.18178338928720333,
          -0.6255426871668552,
          1.011730095478248,
          -0.8194198760796605,
          0.1611856869115009,
          0.7350452782600642,
          0.423015647240949,
          0.8671831815693043,
          -0.41354856402456364,
          -0.23444246605005248,
          -0.6141944802378203,
          -0.3016747780283381,
          0.37652429233244356,
          -0.030933728039515523,
          0.3947781252691663
        ],
        [
          -0.722807703276457,
          0.20046717174208023,
          0.0928773753969294,
          -0.9062778291909972,
          -0.16010272870550377,
          0.22867085174669127,
          -0.21483005492643376,
          0.671023137408368,
          0.2199186489612135,
          0.9056736148597507,
          1.550402517083345,
          0.977602841058837,
          0.5888175369443068,
          -0.3868038050889289,
          -0.49829255245148113,
          -0.03526664363187579
        ],
        [
          -0.9280867267549158,
          -0.36157323429619187,
          -0.6067209897382554,
          -0.3344793520378575,
          1.357014972505782,
          0.07560374462970912,
          0.4459656666857271,
          -0.5970113106435364,
          0.7084622761441379,
          -0.28083345253090064,
          -0.07679880529593015,
          0.2980676648909776,
          -0.9085102755516431,
          -0.25242322790431304,
          -0.19186839704052183,
          0.7325904623007042
        ]
      ],
      "A2": [
        [
          0.212211471289331,
          -0.5876085730618386,
          0.4974222023724647,
          -0.5742751258449847
        ],
        [
          0.2817210907355333,
          -0.33062195999576943,
          0.520534878528035,
          -0.09392790459582868
        ],
        [
          0.06989337561474177,
          0.6617655473586458,
          0.6125836188692191,
          -0.49363489722445664
        ],
        [
          -0.42985217509114293,
          -0.534587504636871,
          -2.267275829036799,
          -0.13733165547249981
        ],
        [
          0.486294489141197,
          -0.23287929527154308,
          -0.5059142388331104,
          -0.35934750076476873
        ],
        [
          -0.19442195607603757,
          -0.32307902117575515,
          -0.1726891366544864,
          0.4735147271974298
        ],
        [
          -0.3066561130051917,
          0.44754845164182616,
          -0.22934869132998326,
          -0.04420568997205847
        ],
        [
          0.9081116167002419,
          -0.8177399577115811,
          -0.5734902156905243,
          0.11253083626960797
        ],
        [
          -0.9892870590145663,
          0.5122888625482998,
          0.2849928778288791,
          -1.0448579615310358
        ],
        [
          0.6069877102804979,
          -1.6984181158671146,
          -0.0706641643313223,
          -0.2721025259496655
        ],
        [
          -0.003301103853344636,
          0.17293501424730345,
          -0.11156371264135037,
          0.28023968657433196
        ],
        [
          0.09116475380474505,
          0.5365375340232228,
          -0.48100515541807365,
          0.2161971964232292
        ],
        [
          0.2880144092820435,
          0.2595684072117103,
          -0.7826997798352147,
          -0.17837302900083934
        ],
        [
          0.5958109059010077,
          -0.15063847456281979,
          -0.3569179441516404,
          0.6570084386571107
        ],
        [
          -0.5078816903176168,
          0.7421420087737037,
          -0.056844381589181016,
          0.8804153504688023
        ],
        [
          -0.3827349804362268,
          0.627543839195247,
          -0.1992464653843405,
          0.6781419791724284
        ]
      ],
      "B2": [
        [
          0.08888937494050306,
          0.24110131612948688
        ],
        [
          -0.35112858111408096,
          0.7390053547166264
        ],
        [
          1.2558423872942976,
          0.3547252874196063
        ],
        [
          0.07138266546567089,
          -0.27242720792845687
        ]
      ]
    },
    "9": {
      "A1": [
        [
          -1.620906583541209,
          0.47960234700182686,
          0.14507952026181312,
          -0.7204809758050195
        ],
        [
          -0.8813872038694712,
          0.8633907441844035,
          -0.12341281717566877,
          -0.15324360128697426
        ],
        [
          -0.8398290974104095,
          0.4760610456562298,
          -1.1518887641887299,
          -0.27540542674526347
        ],
        [
          1.6444522816837066,
          0.8566127170850323,
          0.18122114734413716,
          0.07059510276072817
        ],
        [
          -0.6554694655395967,
          0.7033124847458251,
          -0.41311276436225486,
          1.0663882399997624
        ],
        [
          -0.45225878114204976,
          -0.7038579449336804,
          1.3245582269480856,
          -0.3148374952920741
        ],
        [
          -0.6464938756302943,
          -0.8230150575506652,
          1.5227811888201184,
          0.40454630993867613
        ],
        [
          -0.47680993322840826,
          1.2373238092086118,
          0.003707583679665276,
          -0.6976300520195283
        ],
        [
          -0.7203033745162069,
          0.9795811908633361,
          -0.620712992342455,
          -1.0040968190317798
        ],
        [
          -0.7186242786865479,
          1.111887933114982,
          -0.5678901869579017,
          -0.20361524026344274
        ]
      ],
      "B1": [
        [
          0.19553639552883184,
          0.3793666937683412,
          1.3558170469226913,
          0.5266353272258425,
          -0.347856054751293,
          -1.1600473863617384,
          -0.10816572787400491,
          1.4556889694801847,
          -0.412669579679383,
          -0.14801132315956375,
          0.20068754708795444,
          -0.430517048703496,
          -0.4043537423799151,
          0.867797263143682,
          0.2246951148395603,
          -0.20854964424982814
        ],
        [
          -0.9575407130242629,
          -0.30747583646848764,
          0.8196420834875319,
          0.25822494491018283,
          -0.2589597416001013,
          -0.18333540761444492,
          -0.22594006001957986,
          0.6992377576064542,
          1.1197453475123174,
          0.15156548241174025,
          0.8788159236516647,
          -0.4620173105498451,
          -0.5793276890625768,
          0.5798868700111124,
          -0.5136767308321508,
          0.5489099760425757
        ],
        [
          -0.1015285610619654,
          0.5930696232396815,
          0.6229128084408977,
          -1.4166627223444912,
          0.8260727358051029,
          -0.0346314915909924,
          -0.5019160187681277,
          0.14495044223418344,
          -0.707430881570533,
          1.2416994127541479,
          0.01018180378758465,
          1.3433069733815874,
          -1.0564785501442575,
          -1.0633986577278385,
          1.1150023217036373,
          0.29036025721049813
        ],
        [
          0.15840946516422727,
          -0.6296631892287852,
          -0.06436837910235209,
          0.4689821031185913,
          0.2240299501464103,
          0.5082197314264907,
          1.0422713148873117,
          0.25748223568487716,
          0.49555039973336346,
          -0.004660784112628935,
          -0.1500819766796163,
          -1.1520241870040708,
          -0.9677124255287147,
          0.8799932801621112,
          -0.38385123543022864,
          -0.4108202332431659
        ]
      ],
      "A2": [
        [
          -0.02513703436085372,
          1.5229763834730932,
          1.697470136162864,
          -0.5676426028391255
        ],
        [
          0.40540695429569445,
          1.1493333924338744,
          0.3464447866166847,
          -0.18176837796959414
        ],
        [
          -0.21093764035661455,
          -0.8342798186997293,
          -0.6426530136275879,
          -0.568357705685522
        ],
        [
          -0.557443112226193,
          -0.146480044082786,
          0.6037983707784069,
          0.47816482362765517
        ],
        [
          -0.008414324772236637,
          0.09203540510240579,
          -1.5050777465613312,
          0.6167654110653583
        ],
        [
          -0.27159399572963705,
          -0.6081299014524812,
          0.4248295108581708,
          -0.6452307166508215
        ],
        [
          0.14750792647273767,
          0.9355244356415214,
          -0.24242629722795556,
          -0.10062726301060732
        ],
        [
          0.4855449484231796,
          0.3449530005292879,
          0.3121537357239138,
          0.2605532631692493
        ],
        [
          -0.10582162669625483,
          0.33810018883952,
          0.18694513831594856,
          -0.5574009210355851
        ],
        [
          1.3886500079328228,
          0.36333364021816833,
          -0.7119487131674185,
          -0.8163876930766985
        ],
        [
          -0.3505693118329361,
          0.26125318404608977,
          0.9055065584470229,
          -0.2881051288602606
        ],
        [
          0.40731157140969976,
          0.2834761754251497,
          -0.26886665087879963,
          -0.47657236325892066
        ],
        [
          0.2745801146504519,
          0.2612047038673719,
          0.14799176289346655,
          0.2548057897819761
        ],
        [
          -0.45849068711973107,
          1.075645734255782,
          -0.5345829239142521,
          1.0079281084366987
        ],
        [
          -1.8149495633479067,
          1.116350000432744,
          1.0868665862101208,
          0.06802232577815936
        ],
        [
          -0.0584341089129825,
          -0.8626430747584682,
          0.7739313568551347,
          0.9967132835088076
        ]
      ],
      "B2": [
        [
          1.6338128414999973,
          -0.0498708076805078
        ],
        [
          -0.26099273900737807,
          -0.1521329196358495
        ],
        [
          -1.2304789511277747,
          -1.147623622894164
        ],
        [
          -0.5481199532665141,
          -0.780586803934176
        ]
      ]
    }
  },
  "currentLevel": 9,
  "rank": 4
}